digraph Tree {
node [shape=box, style="filled", color="black"] ;
0 [label="X[5] <= 6.941\nmse = 84.42\nsamples = 506\nvalue = -0.0", fillcolor="#fbece1"] ;
1 [label="mse = 40.273\nsamples = 430\nvalue = -2.599", fillcolor="#ffffff"] ;
0 -> 1 [labeldistance=2.5, labelangle=45, headlabel="True"] ;
2 [label="mse = 79.729\nsamples = 76\nvalue = 14.705", fillcolor="#e58139"] ;
0 -> 2 [labeldistance=2.5, labelangle=-45, headlabel="False"] ;
}